<?xml version="1.0"?>
<opencv_storage>
<cascade>
  <stageType>BOOST</stageType>
  <featureType>HAAR</featureType>
  <height>24</height>
  <width>24</width>
  <stageParams>
    <boostType>GAB</boostType>
    <minHitRate>9.9500000476837158e-01</minHitRate>
    <maxFalseAlarm>5.0000000000000000e-01</maxFalseAlarm>
    <weightTrimRate>9.4999998807907104e-01</weightTrimRate>
    <maxDepth>1</maxDepth>
    <maxWeakCount>100</maxWeakCount></stageParams>
  <featureParams>
    <maxCatCount>0</maxCatCount>
    <featSize>1</featSize>
    <mode>BASIC</mode></featureParams>
  <stageNum>18</stageNum>
  <stages>
    <!-- stage 0 -->
    <_>
      <maxWeakCount>4</maxWeakCount>
      <stageThreshold>-6.7758446931838989e-01</stageThreshold>
      <weakClassifiers>
        <_>
          <internalNodes>
            0 -1 16 -3.5285994410514832e-02</internalNodes>
          <leafValues>
            4.0000000596046448e-01 -8.4337347745895386e-01</leafValues></_>
        <_>
          <internalNodes>
            0 -1 31 -6.7046806216239929e-02</internalNodes>
          <leafValues>
            9.0419089794158936e-01 -5.5886095762252808e-01</leafValues></_>
        <_>
          <internalNodes>
            0 -1 8 2.4680220521986485e-03</internalNodes>
          <leafValues>
            3.7307763099670410e-01 -8.8108605146408081e-01</leafValues></_>
        <_>
          <internalNodes>
            0 -1 56 1.3820014428347349e-03</internalNodes>
          <leafValues>
            3.5157233476638794e-01 -8.1079638004302979e-01</leafValues></_></weakClassifiers></_>
    <!-- stage 1 -->
    <_>
      <maxWeakCount>3</maxWeakCount>
      <stageThreshold>-8.8540172576904297e-01</stageThreshold>
      <weakClassifiers>
        <_>
          <internalNodes>
            0 -1 26 1.8666747212409973e-01</internalNodes>
          <leafValues>
            -7.1727746725082397e-01 8.6666667461395264e-01</leafValues></_>
        <_>
          <internalNodes>
            0 -1 47 -2.4787951260805130e-02</internalNodes>
          <leafValues>
            5.7947015762329102e-01 -5.6239408254623413e-01</leafValues></_>
        <_>
          <internalNodes>
            0 -1 49 1.2279351358301938e-04</internalNodes>
          <leafValues>
            4.5382276177406311e-01 -7.4759441614151001e-01</leafValues></_></weakClassifiers></_>
    <!-- stage 2 -->
    <_>
      <maxWeakCount>4</maxWeakCount>
      <stageThreshold>-9.7907501459121704e-01</stageThreshold>
      <weakClassifiers>
        <_>
          <internalNodes>
            0 -1 14 -1.4968007802963257e-02</internalNodes>
          <leafValues>
            7.2727274894714355e-01 -7.6086956262588501e-01</leafValues></_>
        <_>
          <internalNodes>
            0 -1 29 3.1155077740550041e-03</internalNodes>
          <leafValues>
            -6.3282561302185059e-01 5.8056992292404175e-01</leafValues></_>
        <_>
          <internalNodes>
            0 -1 67 -1.9966503605246544e-03</internalNodes>
          <leafValues>
            9.1202634572982788e-01 -4.0135452151298523e-01</leafValues></_>
        <_>
          <internalNodes>
            0 -1 61 3.8864691741764545e-03</internalNodes>
          <leafValues>
            -3.7267804145812988e-01 8.1597465276718140e-01</leafValues></_></weakClassifiers></_>
    <!-- stage 3 -->
    <_>
      <maxWeakCount>4</maxWeakCount>
      <stageThreshold>-4.2596369981765747e-01</stageThreshold>
      <weakClassifiers>
        <_>
          <internalNodes>
            0 -1 41 1.9632305949926376e-02</internalNodes>
          <leafValues>
            -7.1578949689865112e-01 7.5000000000000000e-01</leafValues></_>
        <_>
          <internalNodes>
            0 -1 20 1.1339666321873665e-02</internalNodes>
          <leafValues>
            -7.6972699165344238e-01 3.8245874643325806e-01</leafValues></_>
        <_>
          <internalNodes>
            0 -1 2 1.4212161768227816e-03</internalNodes>
          <leafValues>
            -8.4120160341262817e-01 4.0319707989692688e-01</leafValues></_>
        <_>
          <internalNodes>
            0 -1 24 -3.7876120768487453e-03</internalNodes>
          <leafValues>
            7.5062829256057739e-01 -4.9583008885383606e-01</leafValues></_></weakClassifiers></_>
    <!-- stage 4 -->
    <_>
      <maxWeakCount>3</maxWeakCount>
      <stageThreshold>-1.0183666944503784e+00</stageThreshold>
      <weakClassifiers>
        <_>
          <internalNodes>
            0 -1 55 1.6941080684773624e-04</internalNodes>
          <leafValues>
            -8.0246913433074951e-01 1.3636364042758942e-01</leafValues></_>
        <_>
          <internalNodes>
            0 -1 68 1.6045974916778505e-04</internalNodes>
          <leafValues>
            -6.9425511360168457e-01 3.5654813051223755e-01</leafValues></_>
        <_>
          <internalNodes>
            0 -1 52 -1.6254899674095213e-04</internalNodes>
          <leafValues>
            6.3466989994049072e-01 -4.6047523617744446e-01</leafValues></_></weakClassifiers></_>
    <!-- stage 5 -->
    <_>
      <maxWeakCount>4</maxWeakCount>
      <stageThreshold>-7.0927393436431885e-01</stageThreshold>
      <weakClassifiers>
        <_>
          <internalNodes>
            0 -1 32 -4.5891210436820984e-02</internalNodes>
          <leafValues>
            3.9130434393882751e-01 -7.2677594423294067e-01</leafValues></_>
        <_>
          <internalNodes>
            0 -1 66 -1.4965004811529070e-04</internalNodes>
          <leafValues>
            3.5231542587280273e-01 -6.5784287452697754e-01</leafValues></_>
        <_>
          <internalNodes>
            0 -1 34 -5.6420139968395233e-02</internalNodes>
          <leafValues>
            -8.4619140625000000e-01 2.8874811530113220e-01</leafValues></_>
        <_>
          <internalNodes>
            0 -1 60 3.7370777135947719e-05</internalNodes>
          <leafValues>
            -6.0275048017501831e-01 5.1137799024581909e-01</leafValues></_></weakClassifiers></_>
    <!-- stage 6 -->
    <_>
      <maxWeakCount>4</maxWeakCount>
      <stageThreshold>-6.6429501771926880e-01</stageThreshold>
      <weakClassifiers>
        <_>
          <internalNodes>
            0 -1 48 1.3325212523341179e-02</internalNodes>
          <leafValues>
            -7.2192513942718506e-01 5.7894736528396606e-01</leafValues></_>
        <_>
          <internalNodes>
            0 -1 53 -5.0036609172821045e-02</internalNodes>
          <leafValues>
            6.2995898723602295e-01 -4.7397017478942871e-01</leafValues></_>
        <_>
          <internalNodes>
            0 -1 39 -3.9031147025525570e-03</internalNodes>
          <leafValues>
            -9.4052320718765259e-01 2.8337109088897705e-01</leafValues></_>
        <_>
          <internalNodes>
            0 -1 3 -8.5299275815486908e-03</internalNodes>
          <leafValues>
            -9.8264849185943604e-01 2.4822923541069031e-01</leafValues></_></weakClassifiers></_>
    <!-- stage 7 -->
    <_>
      <maxWeakCount>4</maxWeakCount>
      <stageThreshold>-6.5843313932418823e-01</stageThreshold>
      <weakClassifiers>
        <_>
          <internalNodes>
            0 -1 17 -3.0982461757957935e-03</internalNodes>
          <leafValues>
            6.4705884456634521e-01 -7.1428573131561279e-01</leafValues></_>
        <_>
          <internalNodes>
            0 -1 50 -1.4650879893451929e-03</internalNodes>
          <leafValues>
            -8.2743650674819946e-01 2.3005828261375427e-01</leafValues></_>
        <_>
          <internalNodes>
            0 -1 7 5.3317222045734525e-04</internalNodes>
          <leafValues>
            2.4413797259330750e-01 -8.8632363080978394e-01</leafValues></_>
        <_>
          <internalNodes>
            0 -1 36 -7.5553255155682564e-03</internalNodes>
          <leafValues>
            7.5704133510589600e-01 -4.1834369301795959e-01</leafValues></_></weakClassifiers></_>
    <!-- stage 8 -->
    <_>
      <maxWeakCount>4</maxWeakCount>
      <stageThreshold>-8.3266705274581909e-01</stageThreshold>
      <weakClassifiers>
        <_>
          <internalNodes>
            0 -1 5 -1.3385596871376038e-01</internalNodes>
          <leafValues>
            1. -7.0103091001510620e-01</leafValues></_>
        <_>
          <internalNodes>
            0 -1 40 8.2117859274148941e-03</internalNodes>
          <leafValues>
            -7.0832383632659912e-01 3.5899969935417175e-01</leafValues></_>
        <_>
          <internalNodes>
            0 -1 70 -1.6947841504588723e-04</internalNodes>
          <leafValues>
            -8.6876225471496582e-01 3.2563823461532593e-01</leafValues></_>
        <_>
          <internalNodes>
            0 -1 9 -1.1214581318199635e-03</internalNodes>
          <leafValues>
            -8.1505584716796875e-01 3.7812641263008118e-01</leafValues></_></weakClassifiers></_>
    <!-- stage 9 -->
    <_>
      <maxWeakCount>3</maxWeakCount>
      <stageThreshold>-4.7685387730598450e-01</stageThreshold>
      <weakClassifiers>
        <_>
          <internalNodes>
            0 -1 0 -1.8337029963731766e-02</internalNodes>
          <leafValues>
            3.0434781312942505e-01 -7.1584701538085938e-01</leafValues></_>
        <_>
          <internalNodes>
            0 -1 62 2.0189292263239622e-04</internalNodes>
          <leafValues>
            1.4424332976341248e-01 -1.</leafValues></_>
        <_>
          <internalNodes>
            0 -1 1 3.6639086902141571e-02</internalNodes>
          <leafValues>
            1.8896004557609558e-01 -9.2544502019882202e-01</leafValues></_></weakClassifiers></_>
    <!-- stage 10 -->
    <_>
      <maxWeakCount>4</maxWeakCount>
      <stageThreshold>-7.9254907369613647e-01</stageThreshold>
      <weakClassifiers>
        <_>
          <internalNodes>
            0 -1 51 -5.4252993315458298e-02</internalNodes>
          <leafValues>
            6.6666668653488159e-01 -7.2340422868728638e-01</leafValues></_>
        <_>
          <internalNodes>
            0 -1 37 4.9831219948828220e-03</internalNodes>
          <leafValues>
            -5.7854807376861572e-01 4.3657502532005310e-01</leafValues></_>
        <_>
          <internalNodes>
            0 -1 21 1.4027317520231009e-03</internalNodes>
          <leafValues>
            -7.4395239353179932e-01 3.3504465222358704e-01</leafValues></_>
        <_>
          <internalNodes>
            0 -1 57 6.4349122112616897e-05</internalNodes>
          <leafValues>
            2.9693725705146790e-01 -8.4076446294784546e-01</leafValues></_></weakClassifiers></_>
    <!-- stage 11 -->
    <_>
      <maxWeakCount>4</maxWeakCount>
      <stageThreshold>-9.1630733013153076e-01</stageThreshold>
      <weakClassifiers>
        <_>
          <internalNodes>
            0 -1 30 -9.5419764518737793e-02</internalNodes>
          <leafValues>
            1. -6.8367344141006470e-01</leafValues></_>
        <_>
          <internalNodes>
            0 -1 35 1.8249239772558212e-02</internalNodes>
          <leafValues>
            -7.6338011026382446e-01 3.7651383876800537e-01</leafValues></_>
        <_>
          <internalNodes>
            0 -1 43 2.9815493617206812e-03</internalNodes>
          <leafValues>
            2.9405131936073303e-01 -8.2596856355667114e-01</leafValues></_>
        <_>
          <internalNodes>
            0 -1 45 -8.5476916283369064e-03</internalNodes>
          <leafValues>
            -9.0319901704788208e-01 3.2355117797851563e-01</leafValues></_></weakClassifiers></_>
    <!-- stage 12 -->
    <_>
      <maxWeakCount>3</maxWeakCount>
      <stageThreshold>-4.6678856015205383e-01</stageThreshold>
      <weakClassifiers>
        <_>
          <internalNodes>
            0 -1 4 -1.6261922195553780e-02</internalNodes>
          <leafValues>
            4.0000000596046448e-01 -7.0967739820480347e-01</leafValues></_>
        <_>
          <internalNodes>
            0 -1 33 -1.8508168868720531e-03</internalNodes>
          <leafValues>
            -1. 1.2774078547954559e-01</leafValues></_>
        <_>
          <internalNodes>
            0 -1 27 2.8895176365040243e-04</internalNodes>
          <leafValues>
            1.1514806747436523e-01 -1.</leafValues></_></weakClassifiers></_>
    <!-- stage 13 -->
    <_>
      <maxWeakCount>4</maxWeakCount>
      <stageThreshold>-6.0340183973312378e-01</stageThreshold>
      <weakClassifiers>
        <_>
          <internalNodes>
            0 -1 11 3.1557865440845490e-02</internalNodes>
          <leafValues>
            -6.9230771064758301e-01 1.</leafValues></_>
        <_>
          <internalNodes>
            0 -1 65 3.3170569804497063e-04</internalNodes>
          <leafValues>
            1.7813463509082794e-01 -8.3183771371841431e-01</leafValues></_>
        <_>
          <internalNodes>
            0 -1 69 -1.2517026625573635e-02</internalNodes>
          <leafValues>
            -1. 2.1914052963256836e-01</leafValues></_>
        <_>
          <internalNodes>
            0 -1 46 -9.6992127597332001e-02</internalNodes>
          <leafValues>
            8.5131114721298218e-01 -3.0836930871009827e-01</leafValues></_></weakClassifiers></_>
    <!-- stage 14 -->
    <_>
      <maxWeakCount>5</maxWeakCount>
      <stageThreshold>-7.7076095342636108e-01</stageThreshold>
      <weakClassifiers>
        <_>
          <internalNodes>
            0 -1 6 -5.5305436253547668e-03</internalNodes>
          <leafValues>
            4.4444444775581360e-01 -7.0212763547897339e-01</leafValues></_>
        <_>
          <internalNodes>
            0 -1 23 -4.1762497276067734e-03</internalNodes>
          <leafValues>
            6.1634284257888794e-01 -3.8800176978111267e-01</leafValues></_>
        <_>
          <internalNodes>
            0 -1 42 3.7264358252286911e-04</internalNodes>
          <leafValues>
            2.9395896196365356e-01 -7.2148573398590088e-01</leafValues></_>
        <_>
          <internalNodes>
            0 -1 13 2.3190859705209732e-02</internalNodes>
          <leafValues>
            -5.4330295324325562e-01 4.0339758992195129e-01</leafValues></_>
        <_>
          <internalNodes>
            0 -1 18 5.3210603073239326e-03</internalNodes>
          <leafValues>
            -3.7798810005187988e-01 7.2013872861862183e-01</leafValues></_></weakClassifiers></_>
    <!-- stage 15 -->
    <_>
      <maxWeakCount>5</maxWeakCount>
      <stageThreshold>-1.2650601863861084e+00</stageThreshold>
      <weakClassifiers>
        <_>
          <internalNodes>
            0 -1 22 3.5037122666835785e-02</internalNodes>
          <leafValues>
            -6.4999997615814209e-01 1.</leafValues></_>
        <_>
          <internalNodes>
            0 -1 59 8.9859910076484084e-05</internalNodes>
          <leafValues>
            -5.9609919786453247e-01 3.3815538883209229e-01</leafValues></_>
        <_>
          <internalNodes>
            0 -1 19 -3.1931195408105850e-03</internalNodes>
          <leafValues>
            4.4719725847244263e-01 -5.0354838371276855e-01</leafValues></_>
        <_>
          <internalNodes>
            0 -1 44 -8.7699154391884804e-04</internalNodes>
          <leafValues>
            -9.6150732040405273e-01 2.1672986447811127e-01</leafValues></_>
        <_>
          <internalNodes>
            0 -1 38 -1.9629089161753654e-02</internalNodes>
          <leafValues>
            -8.8649338483810425e-01 2.6785755157470703e-01</leafValues></_></weakClassifiers></_>
    <!-- stage 16 -->
    <_>
      <maxWeakCount>5</maxWeakCount>
      <stageThreshold>-8.3298599720001221e-01</stageThreshold>
      <weakClassifiers>
        <_>
          <internalNodes>
            0 -1 12 1.3106806203722954e-02</internalNodes>
          <leafValues>
            -6.8750000000000000e-01 5.7142859697341919e-01</leafValues></_>
        <_>
          <internalNodes>
            0 -1 25 5.4936930537223816e-02</internalNodes>
          <leafValues>
            -4.6994170546531677e-01 4.8822775483131409e-01</leafValues></_>
        <_>
          <internalNodes>
            0 -1 10 -8.2273653242737055e-04</internalNodes>
          <leafValues>
            3.4991812705993652e-01 -6.0149168968200684e-01</leafValues></_>
        <_>
          <internalNodes>
            0 -1 15 1.2346212752163410e-03</internalNodes>
          <leafValues>
            -4.0198543667793274e-01 6.5516966581344604e-01</leafValues></_>
        <_>
          <internalNodes>
            0 -1 64 -3.1316856620833278e-04</internalNodes>
          <leafValues>
            4.3678778409957886e-01 -5.8164644241333008e-01</leafValues></_></weakClassifiers></_>
    <!-- stage 17 -->
    <_>
      <maxWeakCount>4</maxWeakCount>
      <stageThreshold>-8.3384037017822266e-01</stageThreshold>
      <weakClassifiers>
        <_>
          <internalNodes>
            0 -1 54 1.3136175693944097e-03</internalNodes>
          <leafValues>
            -7.2881358861923218e-01 1.7241379618644714e-01</leafValues></_>
        <_>
          <internalNodes>
            0 -1 58 -1.0153261246159673e-04</internalNodes>
          <leafValues>
            -7.3512220382690430e-01 1.5767209231853485e-01</leafValues></_>
        <_>
          <internalNodes>
            0 -1 63 -8.5589406080543995e-04</internalNodes>
          <leafValues>
            5.5632859468460083e-01 -4.3444961309432983e-01</leafValues></_>
        <_>
          <internalNodes>
            0 -1 28 7.0011150091886520e-03</internalNodes>
          <leafValues>
            3.6064866185188293e-01 -7.2947663068771362e-01</leafValues></_></weakClassifiers></_></stages>
  <features>
    <_>
      <rects>
        <_>
          0 0 2 19 -1.</_>
        <_>
          1 0 1 19 2.</_></rects>
      <tilted>0</tilted></_>
    <_>
      <rects>
        <_>
          0 0 3 24 -1.</_>
        <_>
          0 12 3 12 2.</_></rects>
      <tilted>0</tilted></_>
    <_>
      <rects>
        <_>
          0 0 14 10 -1.</_>
        <_>
          0 0 7 5 2.</_>
        <_>
          7 5 7 5 2.</_></rects>
      <tilted>0</tilted></_>
    <_>
      <rects>
        <_>
          0 2 1 15 -1.</_>
        <_>
          0 7 1 5 3.</_></rects>
      <tilted>0</tilted></_>
    <_>
      <rects>
        <_>
          0 2 3 15 -1.</_>
        <_>
          1 2 1 15 3.</_></rects>
      <tilted>0</tilted></_>
    <_>
      <rects>
        <_>
          0 2 22 8 -1.</_>
        <_>
          0 6 22 4 2.</_></rects>
      <tilted>0</tilted></_>
    <_>
      <rects>
        <_>
          0 4 2 4 -1.</_>
        <_>
          1 4 1 4 2.</_></rects>
      <tilted>0</tilted></_>
    <_>
      <rects>
        <_>
          0 4 6 1 -1.</_>
        <_>
          2 4 2 1 3.</_></rects>
      <tilted>0</tilted></_>
    <_>
      <rects>
        <_>
          0 6 22 16 -1.</_>
        <_>
          0 6 11 8 2.</_>
        <_>
          11 14 11 8 2.</_></rects>
      <tilted>0</tilted></_>
    <_>
      <rects>
        <_>
          0 7 1 12 -1.</_>
        <_>
          0 13 1 6 2.</_></rects>
      <tilted>0</tilted></_>
    <_>
      <rects>
        <_>
          0 14 4 10 -1.</_>
        <_>
          2 14 2 10 2.</_></rects>
      <tilted>0</tilted></_>
    <_>
      <rects>
        <_>
          0 14 21 3 -1.</_>
        <_>
          0 15 21 1 3.</_></rects>
      <tilted>0</tilted></_>
    <_>
      <rects>
        <_>
          0 20 20 2 -1.</_>
        <_>
          0 21 20 1 2.</_></rects>
      <tilted>0</tilted></_>
    <_>
      <rects>
        <_>
          1 1 14 10 -1.</_>
        <_>
          8 1 7 10 2.</_></rects>
      <tilted>0</tilted></_>
    <_>
      <rects>
        <_>
          1 5 3 15 -1.</_>
        <_>
          2 5 1 15 3.</_></rects>
      <tilted>0</tilted></_>
    <_>
      <rects>
        <_>
          1 7 2 9 -1.</_>
        <_>
          2 7 1 9 2.</_></rects>
      <tilted>0</tilted></_>
    <_>
      <rects>
        <_>
          1 8 8 16 -1.</_>
        <_>
          1 8 4 8 2.</_>
        <_>
          5 16 4 8 2.</_></rects>
      <tilted>0</tilted></_>
    <_>
      <rects>
        <_>
          1 9 3 1 -1.</_>
        <_>
          2 9 1 1 3.</_></rects>
      <tilted>0</tilted></_>
    <_>
      <rects>
        <_>
          1 10 7 3 -1.</_>
        <_>
          1 11 7 1 3.</_></rects>
      <tilted>0</tilted></_>
    <_>
      <rects>
        <_>
          1 21 14 3 -1.</_>
        <_>
          8 21 7 3 2.</_></rects>
      <tilted>0</tilted></_>
    <_>
      <rects>
        <_>
          2 1 12 16 -1.</_>
        <_>
          2 1 6 8 2.</_>
        <_>
          8 9 6 8 2.</_></rects>
      <tilted>0</tilted></_>
    <_>
      <rects>
        <_>
          2 8 18 3 -1.</_>
        <_>
          11 8 9 3 2.</_></rects>
      <tilted>0</tilted></_>
    <_>
      <rects>
        <_>
          3 0 2 16 -1.</_>
        <_>
          4 0 1 16 2.</_></rects>
      <tilted>0</tilted></_>
    <_>
      <rects>
        <_>
          3 2 1 6 -1.</_>
        <_>
          3 4 1 2 3.</_></rects>
      <tilted>0</tilted></_>
    <_>
      <rects>
        <_>
          3 6 5 3 -1.</_>
        <_>
          3 7 5 1 3.</_></rects>
      <tilted>0</tilted></_>
    <_>
      <rects>
        <_>
          3 9 7 15 -1.</_>
        <_>
          3 14 7 5 3.</_></rects>
      <tilted>0</tilted></_>
    <_>
      <rects>
        <_>
          3 14 20 9 -1.</_>
        <_>
          3 17 20 3 3.</_></rects>
      <tilted>0</tilted></_>
    <_>
      <rects>
        <_>
          4 0 4 2 -1.</_>
        <_>
          4 0 2 1 2.</_>
        <_>
          6 1 2 1 2.</_></rects>
      <tilted>0</tilted></_>
    <_>
      <rects>
        <_>
          4 4 12 4 -1.</_>
        <_>
          8 4 4 4 3.</_></rects>
      <tilted>0</tilted></_>
    <_>
      <rects>
        <_>
          4 8 3 7 -1.</_>
        <_>
          5 8 1 7 3.</_></rects>
      <tilted>0</tilted></_>
    <_>
      <rects>
        <_>
          4 15 11 9 -1.</_>
        <_>
          4 18 11 3 3.</_></rects>
      <tilted>0</tilted></_>
    <_>
      <rects>
        <_>
          4 16 9 8 -1.</_>
        <_>
          4 20 9 4 2.</_></rects>
      <tilted>0</tilted></_>
    <_>
      <rects>
        <_>
          4 19 12 4 -1.</_>
        <_>
          4 21 12 2 2.</_></rects>
      <tilted>0</tilted></_>
    <_>
      <rects>
        <_>
          4 20 4 4 -1.</_>
        <_>
          4 20 2 2 2.</_>
        <_>
          6 22 2 2 2.</_></rects>
      <tilted>0</tilted></_>
    <_>
      <rects>
        <_>
          5 2 18 22 -1.</_>
        <_>
          5 2 9 11 2.</_>
        <_>
          14 13 9 11 2.</_></rects>
      <tilted>0</tilted></_>
    <_>
      <rects>
        <_>
          5 14 7 9 -1.</_>
        <_>
          5 17 7 3 3.</_></rects>
      <tilted>0</tilted></_>
    <_>
      <rects>
        <_>
          5 16 12 3 -1.</_>
        <_>
          5 17 12 1 3.</_></rects>
      <tilted>0</tilted></_>
    <_>
      <rects>
        <_>
          6 1 1 10 -1.</_>
        <_>
          6 6 1 5 2.</_></rects>
      <tilted>0</tilted></_>
    <_>
      <rects>
        <_>
          6 8 10 12 -1.</_>
        <_>
          6 8 5 6 2.</_>
        <_>
          11 14 5 6 2.</_></rects>
      <tilted>0</tilted></_>
    <_>
      <rects>
        <_>
          6 12 14 6 -1.</_>
        <_>
          6 12 7 3 2.</_>
        <_>
          13 15 7 3 2.</_></rects>
      <tilted>0</tilted></_>
    <_>
      <rects>
        <_>
          7 3 1 15 -1.</_>
        <_>
          7 8 1 5 3.</_></rects>
      <tilted>0</tilted></_>
    <_>
      <rects>
        <_>
          7 4 16 3 -1.</_>
        <_>
          7 5 16 1 3.</_></rects>
      <tilted>0</tilted></_>
    <_>
      <rects>
        <_>
          7 8 6 2 -1.</_>
        <_>
          9 8 2 2 3.</_></rects>
      <tilted>0</tilted></_>
    <_>
      <rects>
        <_>
          7 15 8 5 -1.</_>
        <_>
          11 15 4 5 2.</_></rects>
      <tilted>0</tilted></_>
    <_>
      <rects>
        <_>
          7 18 6 2 -1.</_>
        <_>
          9 18 2 2 3.</_></rects>
      <tilted>0</tilted></_>
    <_>
      <rects>
        <_>
          8 0 6 20 -1.</_>
        <_>
          8 0 3 10 2.</_>
        <_>
          11 10 3 10 2.</_></rects>
      <tilted>0</tilted></_>
    <_>
      <rects>
        <_>
          8 2 15 12 -1.</_>
        <_>
          8 6 15 4 3.</_></rects>
      <tilted>0</tilted></_>
    <_>
      <rects>
        <_>
          8 9 2 14 -1.</_>
        <_>
          8 16 2 7 2.</_></rects>
      <tilted>0</tilted></_>
    <_>
      <rects>
        <_>
          9 15 10 3 -1.</_>
        <_>
          9 16 10 1 3.</_></rects>
      <tilted>0</tilted></_>
    <_>
      <rects>
        <_>
          9 22 9 2 -1.</_>
        <_>
          12 22 3 2 3.</_></rects>
      <tilted>0</tilted></_>
    <_>
      <rects>
        <_>
          9 23 9 1 -1.</_>
        <_>
          12 23 3 1 3.</_></rects>
      <tilted>0</tilted></_>
    <_>
      <rects>
        <_>
          10 0 7 12 -1.</_>
        <_>
          10 6 7 6 2.</_></rects>
      <tilted>0</tilted></_>
    <_>
      <rects>
        <_>
          10 14 1 2 -1.</_>
        <_>
          10 15 1 1 2.</_></rects>
      <tilted>0</tilted></_>
    <_>
      <rects>
        <_>
          10 17 11 6 -1.</_>
        <_>
          10 20 11 3 2.</_></rects>
      <tilted>0</tilted></_>
    <_>
      <rects>
        <_>
          11 4 2 3 -1.</_>
        <_>
          12 4 1 3 2.</_></rects>
      <tilted>0</tilted></_>
    <_>
      <rects>
        <_>
          11 12 2 2 -1.</_>
        <_>
          11 12 1 1 2.</_>
        <_>
          12 13 1 1 2.</_></rects>
      <tilted>0</tilted></_>
    <_>
      <rects>
        <_>
          11 19 12 4 -1.</_>
        <_>
          15 19 4 4 3.</_></rects>
      <tilted>0</tilted></_>
    <_>
      <rects>
        <_>
          12 0 3 3 -1.</_>
        <_>
          12 1 3 1 3.</_></rects>
      <tilted>0</tilted></_>
    <_>
      <rects>
        <_>
          12 0 12 4 -1.</_>
        <_>
          12 0 6 2 2.</_>
        <_>
          18 2 6 2 2.</_></rects>
      <tilted>0</tilted></_>
    <_>
      <rects>
        <_>
          13 9 3 2 -1.</_>
        <_>
          13 10 3 1 2.</_></rects>
      <tilted>0</tilted></_>
    <_>
      <rects>
        <_>
          14 6 2 5 -1.</_>
        <_>
          15 6 1 5 2.</_></rects>
      <tilted>0</tilted></_>
    <_>
      <rects>
        <_>
          15 14 3 6 -1.</_>
        <_>
          15 17 3 3 2.</_></rects>
      <tilted>0</tilted></_>
    <_>
      <rects>
        <_>
          16 21 3 1 -1.</_>
        <_>
          17 21 1 1 3.</_></rects>
      <tilted>0</tilted></_>
    <_>
      <rects>
        <_>
          17 6 2 6 -1.</_>
        <_>
          17 6 1 3 2.</_>
        <_>
          18 9 1 3 2.</_></rects>
      <tilted>0</tilted></_>
    <_>
      <rects>
        <_>
          18 10 4 2 -1.</_>
        <_>
          20 10 2 2 2.</_></rects>
      <tilted>0</tilted></_>
    <_>
      <rects>
        <_>
          19 12 4 3 -1.</_>
        <_>
          19 13 4 1 3.</_></rects>
      <tilted>0</tilted></_>
    <_>
      <rects>
        <_>
          20 3 3 5 -1.</_>
        <_>
          21 3 1 5 3.</_></rects>
      <tilted>0</tilted></_>
    <_>
      <rects>
        <_>
          20 11 3 1 -1.</_>
        <_>
          21 11 1 1 3.</_></rects>
      <tilted>0</tilted></_>
    <_>
      <rects>
        <_>
          20 13 2 6 -1.</_>
        <_>
          20 13 1 3 2.</_>
        <_>
          21 16 1 3 2.</_></rects>
      <tilted>0</tilted></_>
    <_>
      <rects>
        <_>
          21 9 3 8 -1.</_>
        <_>
          21 13 3 4 2.</_></rects>
      <tilted>0</tilted></_>
    <_>
      <rects>
        <_>
          23 11 1 3 -1.</_>
        <_>
          23 12 1 1 3.</_></rects>
      <tilted>0</tilted></_></features></cascade>
</opencv_storage>
